<?xml version="1.0"?>
<opencv_storage>
<stage4>
  <maxWeakCount>10</maxWeakCount>
  <stageThreshold>2.4231858551502228e-01</stageThreshold>
  <weakClassifiers>
    <_>
      <internalNodes>
        0 -1 187598 5.6151318550109863e-01</internalNodes>
      <leafValues>
        9.0375465154647827e-01 -1.</leafValues></_>
    <_>
      <internalNodes>
        0 -1 182574 -1.2481643259525299e-01</internalNodes>
      <leafValues>
        8.3346259593963623e-01 3.1140747666358948e-01</leafValues></_>
    <_>
      <internalNodes>
        0 -1 384562 -7.9481817781925201e-02</internalNodes>
      <leafValues>
        6.9162464141845703e-01 -5.5534441024065018e-02</leafValues></_>
    <_>
      <internalNodes>
        0 -1 137288 1.1377750337123871e-01</internalNodes>
      <leafValues>
        -1.4940856397151947e-01 6.9810020923614502e-01</leafValues></_>
    <_>
      <internalNodes>
        0 -1 250808 -1.3160395901650190e-03</internalNodes>
      <leafValues>
        -5.0466233491897583e-01 2.0677034556865692e-01</leafValues></_>
    <_>
      <internalNodes>
        0 -1 73985 5.6942164897918701e-02</internalNodes>
      <leafValues>
        -9.0640597045421600e-02 7.3057717084884644e-01</leafValues></_>
    <_>
      <internalNodes>
        0 -1 237624 -3.1922219204716384e-04</internalNodes>
      <leafValues>
        3.6678302288055420e-01 -2.6273179054260254e-01</leafValues></_>
    <_>
      <internalNodes>
        0 -1 252320 -3.6432803608477116e-04</internalNodes>
      <leafValues>
        6.0488975048065186e-01 -1.3592948019504547e-01</leafValues></_>
    <_>
      <internalNodes>
        0 -1 109627 -1.8122326582670212e-03</internalNodes>
      <leafValues>
        -4.5086693763732910e-01 2.0732605457305908e-01</leafValues></_>
    <_>
      <internalNodes>
        0 -1 308098 -7.0022307336330414e-03</internalNodes>
      <leafValues>
        -5.1601737737655640e-01 1.5487551689147949e-01</leafValues></_></weakClassifiers></stage4>
</opencv_storage>
