<?xml version="1.0"?>
<opencv_storage>
<stage8>
  <maxWeakCount>10</maxWeakCount>
  <stageThreshold>2.1314142271876335e-02</stageThreshold>
  <weakClassifiers>
    <_>
      <internalNodes>
        0 -1 82240 -1.8285110592842102e-02</internalNodes>
      <leafValues>
        -6.8571430444717407e-01 9.0646868944168091e-01</leafValues></_>
    <_>
      <internalNodes>
        0 -1 42921 9.3444019556045532e-02</internalNodes>
      <leafValues>
        5.9740102291107178e-01 -6.3160425424575806e-01</leafValues></_>
    <_>
      <internalNodes>
        0 -1 137288 1.0193043947219849e-01</internalNodes>
      <leafValues>
        -1.0381836444139481e-01 9.2283558845520020e-01</leafValues></_>
    <_>
      <internalNodes>
        0 -1 399327 -4.4988458976149559e-03</internalNodes>
      <leafValues>
        9.4917809963226318e-01 -7.8530222177505493e-02</leafValues></_>
    <_>
      <internalNodes>
        0 -1 336539 9.2921138275414705e-04</internalNodes>
      <leafValues>
        -1.3135468959808350e-01 7.5069677829742432e-01</leafValues></_>
    <_>
      <internalNodes>
        0 -1 237465 -1.2420586426742375e-04</internalNodes>
      <leafValues>
        5.5673456192016602e-01 -1.9736024737358093e-01</leafValues></_>
    <_>
      <internalNodes>
        0 -1 220029 1.2599040055647492e-03</internalNodes>
      <leafValues>
        -2.5363376736640930e-01 5.3660577535629272e-01</leafValues></_>
    <_>
      <internalNodes>
        0 -1 391448 -1.2709784787148237e-03</internalNodes>
      <leafValues>
        -5.5868220329284668e-01 2.1317587792873383e-01</leafValues></_>
    <_>
      <internalNodes>
        0 -1 316011 9.3280439614318311e-05</internalNodes>
      <leafValues>
        -2.4341009557247162e-01 5.1430255174636841e-01</leafValues></_>
    <_>
      <internalNodes>
        0 -1 270622 -6.1271610320545733e-05</internalNodes>
      <leafValues>
        5.5932867527008057e-01 -2.1633143723011017e-01</leafValues></_></weakClassifiers></stage8>
</opencv_storage>
