<?xml version="1.0"?>
<opencv_storage>
<cascade>
  <stageType>BOOST</stageType>
  <featureType>HAAR</featureType>
  <height>24</height>
  <width>32</width>
  <stageParams>
    <boostType>GAB</boostType>
    <minHitRate>9.9800002574920654e-01</minHitRate>
    <maxFalseAlarm>8.0000001192092896e-01</maxFalseAlarm>
    <weightTrimRate>9.4999999999999996e-01</weightTrimRate>
    <maxDepth>1</maxDepth>
    <maxWeakCount>100</maxWeakCount></stageParams>
  <featureParams>
    <maxCatCount>0</maxCatCount>
    <featSize>1</featSize>
    <mode>ALL</mode></featureParams>
  <stageNum>9</stageNum>
  <stages>
    <!-- stage 0 -->
    <_>
      <maxWeakCount>9</maxWeakCount>
      <stageThreshold>-1.6402488946914673e-01</stageThreshold>
      <weakClassifiers>
        <_>
          <internalNodes>
            0 -1 36 3.6966577172279358e-03</internalNodes>
          <leafValues>
            9.0600466728210449e-01 -5.4054051637649536e-01</leafValues></_>
        <_>
          <internalNodes>
            0 -1 63 -9.9135458469390869e-02</internalNodes>
          <leafValues>
            8.3064937591552734e-01 2.1088491380214691e-01</leafValues></_>
        <_>
          <internalNodes>
            0 -1 7 1.1591434478759766e-01</internalNodes>
          <leafValues>
            -8.9691363275051117e-02 6.1029344797134399e-01</leafValues></_>
        <_>
          <internalNodes>
            0 -1 29 -5.3530174773186445e-04</internalNodes>
          <leafValues>
            -6.4610636234283447e-01 1.6515691578388214e-01</leafValues></_>
        <_>
          <internalNodes>
            0 -1 50 -7.4587307870388031e-02</internalNodes>
          <leafValues>
            8.0379295349121094e-01 -1.1145175248384476e-01</leafValues></_>
        <_>
          <internalNodes>
            0 -1 94 1.4934087172150612e-02</internalNodes>
          <leafValues>
            1.5533600747585297e-01 -5.1093888282775879e-01</leafValues></_>
        <_>
          <internalNodes>
            0 -1 89 -2.1067815832793713e-03</internalNodes>
          <leafValues>
            -6.5381914377212524e-01 1.2738680839538574e-01</leafValues></_>
        <_>
          <internalNodes>
            0 -1 65 -4.2013181373476982e-03</internalNodes>
          <leafValues>
            -7.1370917558670044e-01 1.0636202991008759e-01</leafValues></_>
        <_>
          <internalNodes>
            0 -1 0 4.4941205531358719e-02</internalNodes>
          <leafValues>
            -1.5647496283054352e-01 5.1718550920486450e-01</leafValues></_></weakClassifiers></_>
    <!-- stage 1 -->
    <_>
      <maxWeakCount>15</maxWeakCount>
      <stageThreshold>-2.4432975053787231e-01</stageThreshold>
      <weakClassifiers>
        <_>
          <internalNodes>
            0 -1 90 6.4645588397979736e-02</internalNodes>
          <leafValues>
            9.0677428245544434e-01 -4.8780488967895508e-01</leafValues></_>
        <_>
          <internalNodes>
            0 -1 61 -1.4300361275672913e-01</internalNodes>
          <leafValues>
            9.0884137153625488e-01 3.1367999315261841e-01</leafValues></_>
        <_>
          <internalNodes>
            0 -1 10 2.6453456282615662e-01</internalNodes>
          <leafValues>
            -2.1185316145420074e-02 7.4467509984970093e-01</leafValues></_>
        <_>
          <internalNodes>
            0 -1 55 -2.3097984492778778e-02</internalNodes>
          <leafValues>
            5.6293576955795288e-01 -1.5905505418777466e-01</leafValues></_>
        <_>
          <internalNodes>
            0 -1 25 8.0081133637577295e-04</internalNodes>
          <leafValues>
            1.8183621764183044e-01 -7.4825012683868408e-01</leafValues></_>
        <_>
          <internalNodes>
            0 -1 27 -1.2429098132997751e-03</internalNodes>
          <leafValues>
            -7.0320773124694824e-01 5.9354104101657867e-02</leafValues></_>
        <_>
          <internalNodes>
            0 -1 100 2.1300347521901131e-02</internalNodes>
          <leafValues>
            -1.0174373537302017e-01 6.7476660013198853e-01</leafValues></_>
        <_>
          <internalNodes>
            0 -1 12 1.6440153121948242e-01</internalNodes>
          <leafValues>
            -5.3019020706415176e-02 8.9610272645950317e-01</leafValues></_>
        <_>
          <internalNodes>
            0 -1 88 -9.2036575078964233e-03</internalNodes>
          <leafValues>
            -8.0385208129882813e-01 8.6186982691287994e-02</leafValues></_>
        <_>
          <internalNodes>
            0 -1 35 -4.5071914792060852e-04</internalNodes>
          <leafValues>
            -4.9919661879539490e-01 1.2810435891151428e-01</leafValues></_>
        <_>
          <internalNodes>
            0 -1 102 1.6896671149879694e-03</internalNodes>
          <leafValues>
            9.0112552046775818e-02 -7.2747927904129028e-01</leafValues></_>
        <_>
          <internalNodes>
            0 -1 34 -9.1715201735496521e-02</internalNodes>
          <leafValues>
            9.1413992643356323e-01 -9.3164764344692230e-02</leafValues></_>
        <_>
          <internalNodes>
            0 -1 1 3.2159313559532166e-02</internalNodes>
          <leafValues>
            -1.1937119066715240e-01 4.7277781367301941e-01</leafValues></_>
        <_>
          <internalNodes>
            0 -1 5 -5.7855923660099506e-03</internalNodes>
          <leafValues>
            4.5764079689979553e-01 -1.8848182260990143e-01</leafValues></_>
        <_>
          <internalNodes>
            0 -1 32 -7.3086000047624111e-03</internalNodes>
          <leafValues>
            -6.1074566841125488e-01 1.2022182345390320e-01</leafValues></_></weakClassifiers></_>
    <!-- stage 2 -->
    <_>
      <maxWeakCount>12</maxWeakCount>
      <stageThreshold>-1.3034549541771412e-02</stageThreshold>
      <weakClassifiers>
        <_>
          <internalNodes>
            0 -1 109 -1.6033928841352463e-02</internalNodes>
          <leafValues>
            -2.5000000000000000e-01 9.0740740299224854e-01</leafValues></_>
        <_>
          <internalNodes>
            0 -1 62 -1.2520073354244232e-01</internalNodes>
          <leafValues>
            8.4442478418350220e-01 2.9657101631164551e-01</leafValues></_>
        <_>
          <internalNodes>
            0 -1 11 1.4484667778015137e-01</internalNodes>
          <leafValues>
            -2.7664974331855774e-02 8.3594441413879395e-01</leafValues></_>
        <_>
          <internalNodes>
            0 -1 81 -2.8432026505470276e-02</internalNodes>
          <leafValues>
            4.8864468932151794e-01 -1.9914309680461884e-01</leafValues></_>
        <_>
          <internalNodes>
            0 -1 26 -6.1200815252959728e-03</internalNodes>
          <leafValues>
            -7.0158725976943970e-01 1.6480983793735504e-01</leafValues></_>
        <_>
          <internalNodes>
            0 -1 42 -1.2243207544088364e-01</internalNodes>
          <leafValues>
            6.5161764621734619e-01 -1.9191491603851318e-01</leafValues></_>
        <_>
          <internalNodes>
            0 -1 60 1.9898757338523865e-02</internalNodes>
          <leafValues>
            -7.5022831559181213e-02 7.0640134811401367e-01</leafValues></_>
        <_>
          <internalNodes>
            0 -1 4 6.2052026391029358e-02</internalNodes>
          <leafValues>
            -1.0943277925252914e-01 7.0110762119293213e-01</leafValues></_>
        <_>
          <internalNodes>
            0 -1 47 -7.5125589501112700e-04</internalNodes>
          <leafValues>
            -6.7046862840652466e-01 1.4497019350528717e-01</leafValues></_>
        <_>
          <internalNodes>
            0 -1 92 9.4187501817941666e-03</internalNodes>
          <leafValues>
            1.3962890207767487e-01 -4.7200590372085571e-01</leafValues></_>
        <_>
          <internalNodes>
            0 -1 95 -2.9018088243901730e-03</internalNodes>
          <leafValues>
            -5.6535387039184570e-01 1.1183668673038483e-01</leafValues></_>
        <_>
          <internalNodes>
            0 -1 57 2.7176328003406525e-02</internalNodes>
          <leafValues>
            -1.7934609949588776e-01 3.6939632892608643e-01</leafValues></_></weakClassifiers></_>
    <!-- stage 3 -->
    <_>
      <maxWeakCount>18</maxWeakCount>
      <stageThreshold>-1.3487504422664642e-01</stageThreshold>
      <weakClassifiers>
        <_>
          <internalNodes>
            0 -1 23 6.8927061557769775e-01</internalNodes>
          <leafValues>
            9.0388482809066772e-01 -7.3584908246994019e-01</leafValues></_>
        <_>
          <internalNodes>
            0 -1 8 1.0277995467185974e-01</internalNodes>
          <leafValues>
            2.4851444363594055e-01 7.9750412702560425e-01</leafValues></_>
        <_>
          <internalNodes>
            0 -1 83 -1.4375511556863785e-02</internalNodes>
          <leafValues>
            6.4430958032608032e-01 -8.8010258972644806e-02</leafValues></_>
        <_>
          <internalNodes>
            0 -1 14 1.3333295285701752e-01</internalNodes>
          <leafValues>
            -1.2375346571207047e-01 8.8650339841842651e-01</leafValues></_>
        <_>
          <internalNodes>
            0 -1 46 -2.0244757831096649e-01</internalNodes>
          <leafValues>
            6.7466455698013306e-01 -1.1826421320438385e-01</leafValues></_>
        <_>
          <internalNodes>
            0 -1 59 -1.3198424130678177e-03</internalNodes>
          <leafValues>
            -4.3030312657356262e-01 2.2064566612243652e-01</leafValues></_>
        <_>
          <internalNodes>
            0 -1 17 -5.2721444517374039e-03</internalNodes>
          <leafValues>
            -7.5872141122817993e-01 6.0389935970306396e-02</leafValues></_>
        <_>
          <internalNodes>
            0 -1 107 2.9519852250814438e-03</internalNodes>
          <leafValues>
            7.6178833842277527e-02 -7.3421102762222290e-01</leafValues></_>
        <_>
          <internalNodes>
            0 -1 97 -9.5567461103200912e-03</internalNodes>
          <leafValues>
            4.0558567643165588e-01 -1.6497518122196198e-01</leafValues></_>
        <_>
          <internalNodes>
            0 -1 98 -1.6075588064268231e-04</internalNodes>
          <leafValues>
            3.2644563913345337e-01 -1.9687063992023468e-01</leafValues></_>
        <_>
          <internalNodes>
            0 -1 105 -7.4217806104570627e-04</internalNodes>
          <leafValues>
            -6.1261457204818726e-01 9.4563171267509460e-02</leafValues></_>
        <_>
          <internalNodes>
            0 -1 77 5.0534456968307495e-02</internalNodes>
          <leafValues>
            -1.2230521440505981e-01 6.1359947919845581e-01</leafValues></_>
        <_>
          <internalNodes>
            0 -1 56 1.4623433351516724e-01</internalNodes>
          <leafValues>
            -7.9434648156166077e-02 8.0484157800674438e-01</leafValues></_>
        <_>
          <internalNodes>
            0 -1 31 -8.3649009466171265e-02</internalNodes>
          <leafValues>
            9.6587163209915161e-01 -5.6331917643547058e-02</leafValues></_>
        <_>
          <internalNodes>
            0 -1 21 -2.0313849672675133e-03</internalNodes>
          <leafValues>
            -2.9927289485931396e-01 2.1945816278457642e-01</leafValues></_>
        <_>
          <internalNodes>
            0 -1 91 -1.5015298267826438e-03</internalNodes>
          <leafValues>
            3.7808471918106079e-01 -1.9981436431407928e-01</leafValues></_>
        <_>
          <internalNodes>
            0 -1 80 -1.5036020195111632e-03</internalNodes>
          <leafValues>
            4.3413284420967102e-01 -1.3741309940814972e-01</leafValues></_>
        <_>
          <internalNodes>
            0 -1 24 1.8852666020393372e-02</internalNodes>
          <leafValues>
            1.0430517792701721e-01 -7.0345777273178101e-01</leafValues></_></weakClassifiers></_>
    <!-- stage 4 -->
    <_>
      <maxWeakCount>10</maxWeakCount>
      <stageThreshold>2.4231858551502228e-01</stageThreshold>
      <weakClassifiers>
        <_>
          <internalNodes>
            0 -1 66 5.6151318550109863e-01</internalNodes>
          <leafValues>
            9.0375465154647827e-01 -1.</leafValues></_>
        <_>
          <internalNodes>
            0 -1 61 -1.2481643259525299e-01</internalNodes>
          <leafValues>
            8.3346259593963623e-01 3.1140747666358948e-01</leafValues></_>
        <_>
          <internalNodes>
            0 -1 93 -7.9481817781925201e-02</internalNodes>
          <leafValues>
            6.9162464141845703e-01 -5.5534441024065018e-02</leafValues></_>
        <_>
          <internalNodes>
            0 -1 49 1.1377750337123871e-01</internalNodes>
          <leafValues>
            -1.4940856397151947e-01 6.9810020923614502e-01</leafValues></_>
        <_>
          <internalNodes>
            0 -1 75 -1.3160395901650190e-03</internalNodes>
          <leafValues>
            -5.0466233491897583e-01 2.0677034556865692e-01</leafValues></_>
        <_>
          <internalNodes>
            0 -1 37 5.6942164897918701e-02</internalNodes>
          <leafValues>
            -9.0640597045421600e-02 7.3057717084884644e-01</leafValues></_>
        <_>
          <internalNodes>
            0 -1 73 -3.1922219204716384e-04</internalNodes>
          <leafValues>
            3.6678302288055420e-01 -2.6273179054260254e-01</leafValues></_>
        <_>
          <internalNodes>
            0 -1 76 -3.6432803608477116e-04</internalNodes>
          <leafValues>
            6.0488975048065186e-01 -1.3592948019504547e-01</leafValues></_>
        <_>
          <internalNodes>
            0 -1 43 -1.8122326582670212e-03</internalNodes>
          <leafValues>
            -4.5086693763732910e-01 2.0732605457305908e-01</leafValues></_>
        <_>
          <internalNodes>
            0 -1 85 -7.0022307336330414e-03</internalNodes>
          <leafValues>
            -5.1601737737655640e-01 1.5487551689147949e-01</leafValues></_></weakClassifiers></_>
    <!-- stage 5 -->
    <_>
      <maxWeakCount>13</maxWeakCount>
      <stageThreshold>-8.7703540921211243e-02</stageThreshold>
      <weakClassifiers>
        <_>
          <internalNodes>
            0 -1 13 -7.3817503452301025e-01</internalNodes>
          <leafValues>
            -7.1428573131561279e-01 9.0307903289794922e-01</leafValues></_>
        <_>
          <internalNodes>
            0 -1 51 1.4646074268966913e-03</internalNodes>
          <leafValues>
            1.9747237861156464e-01 7.6710450649261475e-01</leafValues></_>
        <_>
          <internalNodes>
            0 -1 9 1.5021094679832458e-01</internalNodes>
          <leafValues>
            -2.9029235243797302e-02 9.4395172595977783e-01</leafValues></_>
        <_>
          <internalNodes>
            0 -1 53 -3.3109894394874573e-01</internalNodes>
          <leafValues>
            8.8755732774734497e-01 -1.2805391848087311e-01</leafValues></_>
        <_>
          <internalNodes>
            0 -1 48 -4.5329499989748001e-02</internalNodes>
          <leafValues>
            7.0337855815887451e-01 -8.4811083972454071e-02</leafValues></_>
        <_>
          <internalNodes>
            0 -1 39 -3.8138800300657749e-03</internalNodes>
          <leafValues>
            -4.7589105367660522e-01 1.7479895055294037e-01</leafValues></_>
        <_>
          <internalNodes>
            0 -1 108 -3.7134249578230083e-04</internalNodes>
          <leafValues>
            4.2279544472694397e-01 -1.8400025367736816e-01</leafValues></_>
        <_>
          <internalNodes>
            0 -1 22 6.3625447452068329e-02</internalNodes>
          <leafValues>
            -9.7963027656078339e-02 7.7318012714385986e-01</leafValues></_>
        <_>
          <internalNodes>
            0 -1 52 -4.7745305346325040e-04</internalNodes>
          <leafValues>
            4.7401651740074158e-01 -1.6102789342403412e-01</leafValues></_>
        <_>
          <internalNodes>
            0 -1 18 -7.6633151620626450e-03</internalNodes>
          <leafValues>
            -7.6073497533798218e-01 1.1307159811258316e-01</leafValues></_>
        <_>
          <internalNodes>
            0 -1 40 7.2851732373237610e-02</internalNodes>
          <leafValues>
            -1.1030653119087219e-01 9.3363535404205322e-01</leafValues></_>
        <_>
          <internalNodes>
            0 -1 106 -2.5058019906282425e-02</internalNodes>
          <leafValues>
            -7.8225207328796387e-01 1.1376539617776871e-01</leafValues></_>
        <_>
          <internalNodes>
            0 -1 76 -3.6432803608477116e-04</internalNodes>
          <leafValues>
            6.2608242034912109e-01 -1.4400893449783325e-01</leafValues></_></weakClassifiers></_>
    <!-- stage 6 -->
    <_>
      <maxWeakCount>16</maxWeakCount>
      <stageThreshold>-4.2219030857086182e-01</stageThreshold>
      <weakClassifiers>
        <_>
          <internalNodes>
            0 -1 3 -5.4782104492187500e-01</internalNodes>
          <leafValues>
            -7.0833331346511841e-01 9.0287768840789795e-01</leafValues></_>
        <_>
          <internalNodes>
            0 -1 2 1.1874835193157196e-01</internalNodes>
          <leafValues>
            2.7286192774772644e-01 8.4424513578414917e-01</leafValues></_>
        <_>
          <internalNodes>
            0 -1 54 -1.2255564332008362e-01</internalNodes>
          <leafValues>
            5.8526921272277832e-01 -8.6863905191421509e-02</leafValues></_>
        <_>
          <internalNodes>
            0 -1 103 -1.4629154466092587e-03</internalNodes>
          <leafValues>
            -5.9203612804412842e-01 1.6056829690933228e-01</leafValues></_>
        <_>
          <internalNodes>
            0 -1 15 8.6705178022384644e-02</internalNodes>
          <leafValues>
            -1.2430543452501297e-01 8.4131407737731934e-01</leafValues></_>
        <_>
          <internalNodes>
            0 -1 70 -6.6267108195461333e-05</internalNodes>
          <leafValues>
            4.5028752088546753e-01 -2.4165338277816772e-01</leafValues></_>
        <_>
          <internalNodes>
            0 -1 41 -2.1046823821961880e-03</internalNodes>
          <leafValues>
            -5.7120418548583984e-01 1.8589106202125549e-01</leafValues></_>
        <_>
          <internalNodes>
            0 -1 78 1.4005135744810104e-04</internalNodes>
          <leafValues>
            -2.4417093396186829e-01 4.6291431784629822e-01</leafValues></_>
        <_>
          <internalNodes>
            0 -1 84 -1.5901871025562286e-02</internalNodes>
          <leafValues>
            8.2495933771133423e-01 -1.0141971707344055e-01</leafValues></_>
        <_>
          <internalNodes>
            0 -1 74 1.7573231598362327e-03</internalNodes>
          <leafValues>
            -2.1515685319900513e-01 4.3348303437232971e-01</leafValues></_>
        <_>
          <internalNodes>
            0 -1 82 -1.4384157955646515e-02</internalNodes>
          <leafValues>
            6.8946498632431030e-01 -1.3199986517429352e-01</leafValues></_>
        <_>
          <internalNodes>
            0 -1 19 1.4635236002504826e-03</internalNodes>
          <leafValues>
            2.1188351511955261e-01 -5.4493367671966553e-01</leafValues></_>
        <_>
          <internalNodes>
            0 -1 104 -1.1080897413194180e-02</internalNodes>
          <leafValues>
            3.9859589934349060e-01 -2.5886064767837524e-01</leafValues></_>
        <_>
          <internalNodes>
            0 -1 44 9.9789787782356143e-05</internalNodes>
          <leafValues>
            -1.7346644401550293e-01 4.9790591001510620e-01</leafValues></_>
        <_>
          <internalNodes>
            0 -1 64 -3.3910557249328122e-05</internalNodes>
          <leafValues>
            4.2256483435630798e-01 -2.0262901484966278e-01</leafValues></_>
        <_>
          <internalNodes>
            0 -1 30 -3.3236225135624409e-03</internalNodes>
          <leafValues>
            -3.2601463794708252e-01 2.5387287139892578e-01</leafValues></_></weakClassifiers></_>
    <!-- stage 7 -->
    <_>
      <maxWeakCount>11</maxWeakCount>
      <stageThreshold>-1.7757725715637207e-01</stageThreshold>
      <weakClassifiers>
        <_>
          <internalNodes>
            0 -1 58 -1.6386080533266068e-02</internalNodes>
          <leafValues>
            -1. 9.0254729986190796e-01</leafValues></_>
        <_>
          <internalNodes>
            0 -1 110 -9.6858089091256261e-04</internalNodes>
          <leafValues>
            -2.9552525281906128e-01 6.1479151248931885e-01</leafValues></_>
        <_>
          <internalNodes>
            0 -1 6 8.2974195480346680e-02</internalNodes>
          <leafValues>
            -1.9848351180553436e-01 6.0308313369750977e-01</leafValues></_>
        <_>
          <internalNodes>
            0 -1 33 -2.5777989625930786e-01</internalNodes>
          <leafValues>
            7.7584111690521240e-01 -1.3455832004547119e-01</leafValues></_>
        <_>
          <internalNodes>
            0 -1 101 8.1824365770444274e-04</internalNodes>
          <leafValues>
            -1.7872188985347748e-01 6.5291285514831543e-01</leafValues></_>
        <_>
          <internalNodes>
            0 -1 45 7.5928619480691850e-05</internalNodes>
          <leafValues>
            -2.3869925737380981e-01 4.9283081293106079e-01</leafValues></_>
        <_>
          <internalNodes>
            0 -1 67 1.3276749814394861e-04</internalNodes>
          <leafValues>
            -1.9466051459312439e-01 5.5374789237976074e-01</leafValues></_>
        <_>
          <internalNodes>
            0 -1 20 -1.9164874684065580e-03</internalNodes>
          <leafValues>
            -5.9250807762145996e-01 1.9175197184085846e-01</leafValues></_>
        <_>
          <internalNodes>
            0 -1 71 -5.7401932775974274e-02</internalNodes>
          <leafValues>
            7.4739259481430054e-01 -1.6202621161937714e-01</leafValues></_>
        <_>
          <internalNodes>
            0 -1 68 7.9423710703849792e-02</internalNodes>
          <leafValues>
            -1.0012307018041611e-01 8.8678812980651855e-01</leafValues></_>
        <_>
          <internalNodes>
            0 -1 16 1.8579297466203570e-03</internalNodes>
          <leafValues>
            1.8348057568073273e-01 -6.7939525842666626e-01</leafValues></_></weakClassifiers></_>
    <!-- stage 8 -->
    <_>
      <maxWeakCount>10</maxWeakCount>
      <stageThreshold>2.1314142271876335e-02</stageThreshold>
      <weakClassifiers>
        <_>
          <internalNodes>
            0 -1 38 -1.8285110592842102e-02</internalNodes>
          <leafValues>
            -6.8571430444717407e-01 9.0646868944168091e-01</leafValues></_>
        <_>
          <internalNodes>
            0 -1 28 9.3444019556045532e-02</internalNodes>
          <leafValues>
            5.9740102291107178e-01 -6.3160425424575806e-01</leafValues></_>
        <_>
          <internalNodes>
            0 -1 49 1.0193043947219849e-01</internalNodes>
          <leafValues>
            -1.0381836444139481e-01 9.2283558845520020e-01</leafValues></_>
        <_>
          <internalNodes>
            0 -1 99 -4.4988458976149559e-03</internalNodes>
          <leafValues>
            9.4917809963226318e-01 -7.8530222177505493e-02</leafValues></_>
        <_>
          <internalNodes>
            0 -1 87 9.2921138275414705e-04</internalNodes>
          <leafValues>
            -1.3135468959808350e-01 7.5069677829742432e-01</leafValues></_>
        <_>
          <internalNodes>
            0 -1 72 -1.2420586426742375e-04</internalNodes>
          <leafValues>
            5.5673456192016602e-01 -1.9736024737358093e-01</leafValues></_>
        <_>
          <internalNodes>
            0 -1 69 1.2599040055647492e-03</internalNodes>
          <leafValues>
            -2.5363376736640930e-01 5.3660577535629272e-01</leafValues></_>
        <_>
          <internalNodes>
            0 -1 96 -1.2709784787148237e-03</internalNodes>
          <leafValues>
            -5.5868220329284668e-01 2.1317587792873383e-01</leafValues></_>
        <_>
          <internalNodes>
            0 -1 86 9.3280439614318311e-05</internalNodes>
          <leafValues>
            -2.4341009557247162e-01 5.1430255174636841e-01</leafValues></_>
        <_>
          <internalNodes>
            0 -1 79 -6.1271610320545733e-05</internalNodes>
          <leafValues>
            5.5932867527008057e-01 -2.1633143723011017e-01</leafValues></_></weakClassifiers></_></stages>
  <features>
    <_>
      <rects>
        <_>
          0 0 10 19 -1.</_>
        <_>
          5 0 5 19 2.</_></rects>
      <tilted>0</tilted></_>
    <_>
      <rects>
        <_>
          0 0 12 13 -1.</_>
        <_>
          6 0 6 13 2.</_></rects>
      <tilted>0</tilted></_>
    <_>
      <rects>
        <_>
          0 0 32 17 -1.</_>
        <_>
          8 0 16 17 2.</_></rects>
      <tilted>0</tilted></_>
    <_>
      <rects>
        <_>
          0 0 30 16 -1.</_>
        <_>
          0 8 30 8 2.</_></rects>
      <tilted>0</tilted></_>
    <_>
      <rects>
        <_>
          0 1 16 16 -1.</_>
        <_>
          4 1 8 16 2.</_></rects>
      <tilted>0</tilted></_>
    <_>
      <rects>
        <_>
          0 1 10 6 -1.</_>
        <_>
          5 1 5 6 2.</_></rects>
      <tilted>0</tilted></_>
    <_>
      <rects>
        <_>
          0 1 32 12 -1.</_>
        <_>
          8 1 16 12 2.</_></rects>
      <tilted>0</tilted></_>
    <_>
      <rects>
        <_>
          0 1 32 15 -1.</_>
        <_>
          8 1 16 15 2.</_></rects>
      <tilted>0</tilted></_>
    <_>
      <rects>
        <_>
          0 1 32 20 -1.</_>
        <_>
          8 1 16 20 2.</_></rects>
      <tilted>0</tilted></_>
    <_>
      <rects>
        <_>
          0 2 16 17 -1.</_>
        <_>
          8 2 8 17 2.</_></rects>
      <tilted>0</tilted></_>
    <_>
      <rects>
        <_>
          0 2 32 22 -1.</_>
        <_>
          8 2 16 22 2.</_></rects>
      <tilted>0</tilted></_>
    <_>
      <rects>
        <_>
          0 3 32 9 -1.</_>
        <_>
          8 3 16 9 2.</_></rects>
      <tilted>0</tilted></_>
    <_>
      <rects>
        <_>
          0 3 20 10 -1.</_>
        <_>
          10 3 10 10 2.</_></rects>
      <tilted>0</tilted></_>
    <_>
      <rects>
        <_>
          0 3 32 20 -1.</_>
        <_>
          0 13 32 10 2.</_></rects>
      <tilted>0</tilted></_>
    <_>
      <rects>
        <_>
          0 4 18 9 -1.</_>
        <_>
          9 4 9 9 2.</_></rects>
      <tilted>0</tilted></_>
    <_>
      <rects>
        <_>
          0 4 22 6 -1.</_>
        <_>
          11 4 11 6 2.</_></rects>
      <tilted>0</tilted></_>
    <_>
      <rects>
        <_>
          0 7 1 6 -1.</_>
        <_>
          0 9 1 2 3.</_></rects>
      <tilted>0</tilted></_>
    <_>
      <rects>
        <_>
          0 11 2 6 -1.</_>
        <_>
          0 13 2 2 3.</_></rects>
      <tilted>0</tilted></_>
    <_>
      <rects>
        <_>
          0 12 16 3 -1.</_>
        <_>
          0 13 16 1 3.</_></rects>
      <tilted>0</tilted></_>
    <_>
      <rects>
        <_>
          0 15 4 3 -1.</_>
        <_>
          0 16 4 1 3.</_></rects>
      <tilted>0</tilted></_>
    <_>
      <rects>
        <_>
          0 18 3 3 -1.</_>
        <_>
          1 19 1 1 9.</_></rects>
      <tilted>0</tilted></_>
    <_>
      <rects>
        <_>
          0 19 5 4 -1.</_>
        <_>
          0 21 5 2 2.</_></rects>
      <tilted>0</tilted></_>
    <_>
      <rects>
        <_>
          1 0 16 17 -1.</_>
        <_>
          5 0 8 17 2.</_></rects>
      <tilted>0</tilted></_>
    <_>
      <rects>
        <_>
          1 0 31 20 -1.</_>
        <_>
          1 10 31 10 2.</_></rects>
      <tilted>0</tilted></_>
    <_>
      <rects>
        <_>
          1 7 10 8 -1.</_>
        <_>
          1 9 10 4 2.</_></rects>
      <tilted>0</tilted></_>
    <_>
      <rects>
        <_>
          1 11 1 3 -1.</_>
        <_>
          1 12 1 1 3.</_></rects>
      <tilted>0</tilted></_>
    <_>
      <rects>
        <_>
          1 11 3 6 -1.</_>
        <_>
          1 13 3 2 3.</_></rects>
      <tilted>0</tilted></_>
    <_>
      <rects>
        <_>
          1 15 2 4 -1.</_>
        <_>
          1 16 2 2 2.</_></rects>
      <tilted>0</tilted></_>
    <_>
      <rects>
        <_>
          1 15 29 8 -1.</_>
        <_>
          1 19 29 4 2.</_></rects>
      <tilted>0</tilted></_>
    <_>
      <rects>
        <_>
          1 16 1 3 -1.</_>
        <_>
          1 17 1 1 3.</_></rects>
      <tilted>0</tilted></_>
    <_>
      <rects>
        <_>
          1 18 4 6 -1.</_>
        <_>
          1 21 4 3 2.</_></rects>
      <tilted>0</tilted></_>
    <_>
      <rects>
        <_>
          2 6 10 15 -1.</_>
        <_>
          7 6 5 15 2.</_></rects>
      <tilted>0</tilted></_>
    <_>
      <rects>
        <_>
          2 7 30 3 -1.</_>
        <_>
          2 8 30 1 3.</_></rects>
      <tilted>0</tilted></_>
    <_>
      <rects>
        <_>
          2 8 30 13 -1.</_>
        <_>
          17 8 15 13 2.</_></rects>
      <tilted>0</tilted></_>
    <_>
      <rects>
        <_>
          2 9 12 12 -1.</_>
        <_>
          8 9 6 12 2.</_></rects>
      <tilted>0</tilted></_>
    <_>
      <rects>
        <_>
          2 16 1 4 -1.</_>
        <_>
          2 17 1 2 2.</_></rects>
      <tilted>0</tilted></_>
    <_>
      <rects>
        <_>
          2 20 2 3 -1.</_>
        <_>
          2 21 2 1 3.</_></rects>
      <tilted>0</tilted></_>
    <_>
      <rects>
        <_>
          3 3 18 6 -1.</_>
        <_>
          12 3 9 6 2.</_></rects>
      <tilted>0</tilted></_>
    <_>
      <rects>
        <_>
          3 9 19 3 -1.</_>
        <_>
          3 10 19 1 3.</_></rects>
      <tilted>0</tilted></_>
    <_>
      <rects>
        <_>
          3 20 6 3 -1.</_>
        <_>
          5 21 2 1 9.</_></rects>
      <tilted>0</tilted></_>
    <_>
      <rects>
        <_>
          4 7 12 10 -1.</_>
        <_>
          10 7 6 10 2.</_></rects>
      <tilted>0</tilted></_>
    <_>
      <rects>
        <_>
          4 8 3 3 -1.</_>
        <_>
          5 9 1 1 9.</_></rects>
      <tilted>0</tilted></_>
    <_>
      <rects>
        <_>
          4 8 28 16 -1.</_>
        <_>
          4 8 14 8 2.</_>
        <_>
          18 16 14 8 2.</_></rects>
      <tilted>0</tilted></_>
    <_>
      <rects>
        <_>
          4 16 4 7 -1.</_>
        <_>
          5 16 2 7 2.</_></rects>
      <tilted>0</tilted></_>
    <_>
      <rects>
        <_>
          5 5 3 1 -1.</_>
        <_>
          6 5 1 1 3.</_></rects>
      <tilted>0</tilted></_>
    <_>
      <rects>
        <_>
          5 8 2 4 -1.</_>
        <_>
          5 8 1 2 2.</_>
        <_>
          6 10 1 2 2.</_></rects>
      <tilted>0</tilted></_>
    <_>
      <rects>
        <_>
          5 12 26 12 -1.</_>
        <_>
          18 12 13 12 2.</_></rects>
      <tilted>0</tilted></_>
    <_>
      <rects>
        <_>
          5 15 1 3 -1.</_>
        <_>
          5 16 1 1 3.</_></rects>
      <tilted>0</tilted></_>
    <_>
      <rects>
        <_>
          6 2 12 21 -1.</_>
        <_>
          10 2 4 21 3.</_></rects>
      <tilted>0</tilted></_>
    <_>
      <rects>
        <_>
          6 2 15 6 -1.</_>
        <_>
          11 7 5 6 3.</_></rects>
      <tilted>1</tilted></_>
    <_>
      <rects>
        <_>
          6 2 12 13 -1.</_>
        <_>
          12 2 6 13 2.</_></rects>
      <tilted>0</tilted></_>
    <_>
      <rects>
        <_>
          6 3 11 6 -1.</_>
        <_>
          6 6 11 3 2.</_></rects>
      <tilted>0</tilted></_>
    <_>
      <rects>
        <_>
          6 5 2 2 -1.</_>
        <_>
          6 5 2 1 2.</_></rects>
      <tilted>1</tilted></_>
    <_>
      <rects>
        <_>
          6 7 26 17 -1.</_>
        <_>
          19 7 13 17 2.</_></rects>
      <tilted>0</tilted></_>
    <_>
      <rects>
        <_>
          6 8 26 9 -1.</_>
        <_>
          19 8 13 9 2.</_></rects>
      <tilted>0</tilted></_>
    <_>
      <rects>
        <_>
          6 11 12 6 -1.</_>
        <_>
          12 11 6 6 2.</_></rects>
      <tilted>0</tilted></_>
    <_>
      <rects>
        <_>
          7 2 15 7 -1.</_>
        <_>
          12 7 5 7 3.</_></rects>
      <tilted>1</tilted></_>
    <_>
      <rects>
        <_>
          7 4 14 18 -1.</_>
        <_>
          7 4 7 9 2.</_>
        <_>
          14 13 7 9 2.</_></rects>
      <tilted>0</tilted></_>
    <_>
      <rects>
        <_>
          7 13 8 4 -1.</_>
        <_>
          7 14 8 2 2.</_></rects>
      <tilted>0</tilted></_>
    <_>
      <rects>
        <_>
          7 19 2 3 -1.</_>
        <_>
          6 20 2 1 3.</_></rects>
      <tilted>1</tilted></_>
    <_>
      <rects>
        <_>
          8 2 10 6 -1.</_>
        <_>
          13 2 5 6 2.</_></rects>
      <tilted>0</tilted></_>
    <_>
      <rects>
        <_>
          8 4 24 12 -1.</_>
        <_>
          20 4 12 12 2.</_></rects>
      <tilted>0</tilted></_>
    <_>
      <rects>
        <_>
          8 5 24 12 -1.</_>
        <_>
          20 5 12 12 2.</_></rects>
      <tilted>0</tilted></_>
    <_>
      <rects>
        <_>
          8 6 24 14 -1.</_>
        <_>
          20 6 12 14 2.</_></rects>
      <tilted>0</tilted></_>
    <_>
      <rects>
        <_>
          8 7 2 6 -1.</_>
        <_>
          8 7 1 3 2.</_>
        <_>
          9 10 1 3 2.</_></rects>
      <tilted>0</tilted></_>
    <_>
      <rects>
        <_>
          8 7 10 3 -1.</_>
        <_>
          8 8 10 1 3.</_></rects>
      <tilted>0</tilted></_>
    <_>
      <rects>
        <_>
          8 8 24 16 -1.</_>
        <_>
          20 8 12 16 2.</_></rects>
      <tilted>0</tilted></_>
    <_>
      <rects>
        <_>
          8 18 8 2 -1.</_>
        <_>
          8 18 4 1 2.</_>
        <_>
          12 19 4 1 2.</_></rects>
      <tilted>0</tilted></_>
    <_>
      <rects>
        <_>
          10 1 12 10 -1.</_>
        <_>
          13 4 6 10 2.</_></rects>
      <tilted>1</tilted></_>
    <_>
      <rects>
        <_>
          10 3 12 2 -1.</_>
        <_>
          13 3 6 2 2.</_></rects>
      <tilted>0</tilted></_>
    <_>
      <rects>
        <_>
          10 4 2 1 -1.</_>
        <_>
          11 4 1 1 2.</_></rects>
      <tilted>0</tilted></_>
    <_>
      <rects>
        <_>
          10 8 22 12 -1.</_>
        <_>
          10 8 11 6 2.</_>
        <_>
          21 14 11 6 2.</_></rects>
      <tilted>0</tilted></_>
    <_>
      <rects>
        <_>
          11 2 2 2 -1.</_>
        <_>
          12 2 1 2 2.</_></rects>
      <tilted>0</tilted></_>
    <_>
      <rects>
        <_>
          11 2 2 4 -1.</_>
        <_>
          11 2 2 2 2.</_></rects>
      <tilted>1</tilted></_>
    <_>
      <rects>
        <_>
          11 9 12 8 -1.</_>
        <_>
          11 9 6 4 2.</_>
        <_>
          17 13 6 4 2.</_></rects>
      <tilted>0</tilted></_>
    <_>
      <rects>
        <_>
          11 15 3 2 -1.</_>
        <_>
          11 16 3 1 2.</_></rects>
      <tilted>0</tilted></_>
    <_>
      <rects>
        <_>
          11 19 4 1 -1.</_>
        <_>
          12 19 2 1 2.</_></rects>
      <tilted>0</tilted></_>
    <_>
      <rects>
        <_>
          12 5 16 12 -1.</_>
        <_>
          16 5 8 12 2.</_></rects>
      <tilted>0</tilted></_>
    <_>
      <rects>
        <_>
          12 15 2 8 -1.</_>
        <_>
          12 15 1 4 2.</_>
        <_>
          13 19 1 4 2.</_></rects>
      <tilted>0</tilted></_>
    <_>
      <rects>
        <_>
          12 19 4 1 -1.</_>
        <_>
          13 19 2 1 2.</_></rects>
      <tilted>0</tilted></_>
    <_>
      <rects>
        <_>
          13 8 5 2 -1.</_>
        <_>
          13 8 5 1 2.</_></rects>
      <tilted>1</tilted></_>
    <_>
      <rects>
        <_>
          14 2 7 10 -1.</_>
        <_>
          14 2 7 5 2.</_></rects>
      <tilted>1</tilted></_>
    <_>
      <rects>
        <_>
          14 4 12 6 -1.</_>
        <_>
          12 6 12 2 3.</_></rects>
      <tilted>1</tilted></_>
    <_>
      <rects>
        <_>
          15 0 2 12 -1.</_>
        <_>
          15 0 2 6 2.</_></rects>
      <tilted>1</tilted></_>
    <_>
      <rects>
        <_>
          15 1 1 12 -1.</_>
        <_>
          15 1 1 6 2.</_></rects>
      <tilted>1</tilted></_>
    <_>
      <rects>
        <_>
          15 1 11 6 -1.</_>
        <_>
          15 3 11 2 3.</_></rects>
      <tilted>0</tilted></_>
    <_>
      <rects>
        <_>
          15 9 4 2 -1.</_>
        <_>
          15 9 2 1 2.</_>
        <_>
          17 10 2 1 2.</_></rects>
      <tilted>0</tilted></_>
    <_>
      <rects>
        <_>
          16 18 3 3 -1.</_>
        <_>
          15 19 3 1 3.</_></rects>
      <tilted>1</tilted></_>
    <_>
      <rects>
        <_>
          17 2 15 4 -1.</_>
        <_>
          17 3 15 2 2.</_></rects>
      <tilted>0</tilted></_>
    <_>
      <rects>
        <_>
          17 17 1 4 -1.</_>
        <_>
          16 18 1 2 2.</_></rects>
      <tilted>1</tilted></_>
    <_>
      <rects>
        <_>
          17 18 12 5 -1.</_>
        <_>
          23 18 6 5 2.</_></rects>
      <tilted>0</tilted></_>
    <_>
      <rects>
        <_>
          17 22 15 2 -1.</_>
        <_>
          17 23 15 1 2.</_></rects>
      <tilted>0</tilted></_>
    <_>
      <rects>
        <_>
          19 14 13 10 -1.</_>
        <_>
          19 19 13 5 2.</_></rects>
      <tilted>0</tilted></_>
    <_>
      <rects>
        <_>
          20 5 12 17 -1.</_>
        <_>
          26 5 6 17 2.</_></rects>
      <tilted>0</tilted></_>
    <_>
      <rects>
        <_>
          20 14 12 10 -1.</_>
        <_>
          20 19 12 5 2.</_></rects>
      <tilted>0</tilted></_>
    <_>
      <rects>
        <_>
          20 18 9 3 -1.</_>
        <_>
          20 19 9 1 3.</_></rects>
      <tilted>0</tilted></_>
    <_>
      <rects>
        <_>
          21 0 4 3 -1.</_>
        <_>
          22 0 2 3 2.</_></rects>
      <tilted>0</tilted></_>
    <_>
      <rects>
        <_>
          21 2 6 10 -1.</_>
        <_>
          23 4 2 10 3.</_></rects>
      <tilted>1</tilted></_>
    <_>
      <rects>
        <_>
          21 9 3 10 -1.</_>
        <_>
          22 10 1 10 3.</_></rects>
      <tilted>1</tilted></_>
    <_>
      <rects>
        <_>
          21 10 6 2 -1.</_>
        <_>
          24 10 3 2 2.</_></rects>
      <tilted>0</tilted></_>
    <_>
      <rects>
        <_>
          21 10 10 1 -1.</_>
        <_>
          21 10 5 1 2.</_></rects>
      <tilted>1</tilted></_>
    <_>
      <rects>
        <_>
          21 13 2 9 -1.</_>
        <_>
          22 13 1 9 2.</_></rects>
      <tilted>0</tilted></_>
    <_>
      <rects>
        <_>
          22 3 3 2 -1.</_>
        <_>
          23 3 1 2 3.</_></rects>
      <tilted>0</tilted></_>
    <_>
      <rects>
        <_>
          22 10 3 3 -1.</_>
        <_>
          22 11 3 1 3.</_></rects>
      <tilted>0</tilted></_>
    <_>
      <rects>
        <_>
          23 8 8 11 -1.</_>
        <_>
          27 8 4 11 2.</_></rects>
      <tilted>0</tilted></_>
    <_>
      <rects>
        <_>
          23 10 1 3 -1.</_>
        <_>
          23 11 1 1 3.</_></rects>
      <tilted>0</tilted></_>
    <_>
      <rects>
        <_>
          26 3 6 16 -1.</_>
        <_>
          28 3 2 16 3.</_></rects>
      <tilted>0</tilted></_>
    <_>
      <rects>
        <_>
          26 18 6 1 -1.</_>
        <_>
          29 18 3 1 2.</_></rects>
      <tilted>0</tilted></_>
    <_>
      <rects>
        <_>
          27 0 4 6 -1.</_>
        <_>
          28 0 2 6 2.</_></rects>
      <tilted>0</tilted></_>
    <_>
      <rects>
        <_>
          29 0 3 23 -1.</_>
        <_>
          30 0 1 23 3.</_></rects>
      <tilted>0</tilted></_>
    <_>
      <rects>
        <_>
          29 8 1 4 -1.</_>
        <_>
          29 9 1 2 2.</_></rects>
      <tilted>0</tilted></_></features></cascade>
</opencv_storage>
