<?xml version="1.0"?>
<opencv_storage>
<stage5>
  <maxWeakCount>13</maxWeakCount>
  <stageThreshold>-8.7703540921211243e-02</stageThreshold>
  <weakClassifiers>
    <_>
      <internalNodes>
        0 -1 7061 -7.3817503452301025e-01</internalNodes>
      <leafValues>
        -7.1428573131561279e-01 9.0307903289794922e-01</leafValues></_>
    <_>
      <internalNodes>
        0 -1 139375 1.4646074268966913e-03</internalNodes>
      <leafValues>
        1.9747237861156464e-01 7.6710450649261475e-01</leafValues></_>
    <_>
      <internalNodes>
        0 -1 4522 1.5021094679832458e-01</internalNodes>
      <leafValues>
        -2.9029235243797302e-02 9.4395172595977783e-01</leafValues></_>
    <_>
      <internalNodes>
        0 -1 144957 -3.3109894394874573e-01</internalNodes>
      <leafValues>
        8.8755732774734497e-01 -1.2805391848087311e-01</leafValues></_>
    <_>
      <internalNodes>
        0 -1 137217 -4.5329499989748001e-02</internalNodes>
      <leafValues>
        7.0337855815887451e-01 -8.4811083972454071e-02</leafValues></_>
    <_>
      <internalNodes>
        0 -1 89219 -3.8138800300657749e-03</internalNodes>
      <leafValues>
        -4.7589105367660522e-01 1.7479895055294037e-01</leafValues></_>
    <_>
      <internalNodes>
        0 -1 445394 -3.7134249578230083e-04</internalNodes>
      <leafValues>
        4.2279544472694397e-01 -1.8400025367736816e-01</leafValues></_>
    <_>
      <internalNodes>
        0 -1 23550 6.3625447452068329e-02</internalNodes>
      <leafValues>
        -9.7963027656078339e-02 7.7318012714385986e-01</leafValues></_>
    <_>
      <internalNodes>
        0 -1 141429 -4.7745305346325040e-04</internalNodes>
      <leafValues>
        4.7401651740074158e-01 -1.6102789342403412e-01</leafValues></_>
    <_>
      <internalNodes>
        0 -1 18027 -7.6633151620626450e-03</internalNodes>
      <leafValues>
        -7.6073497533798218e-01 1.1307159811258316e-01</leafValues></_>
    <_>
      <internalNodes>
        0 -1 101470 7.2851732373237610e-02</internalNodes>
      <leafValues>
        -1.1030653119087219e-01 9.3363535404205322e-01</leafValues></_>
    <_>
      <internalNodes>
        0 -1 440514 -2.5058019906282425e-02</internalNodes>
      <leafValues>
        -7.8225207328796387e-01 1.1376539617776871e-01</leafValues></_>
    <_>
      <internalNodes>
        0 -1 252320 -3.6432803608477116e-04</internalNodes>
      <leafValues>
        6.2608242034912109e-01 -1.4400893449783325e-01</leafValues></_></weakClassifiers></stage5>
</opencv_storage>
